digraph Tree {
node [shape=box, style="filled, rounded", color="black", fontname=helvetica] ;
edge [fontname=helvetica] ;
0 [label=<LastUpdateDays &le; 0.0247<br/>gini = 0.4785<br/>samples = 159<br/>value = [96, 63]<br/>class = 0>, fillcolor="#e5813958"] ;
1 [label=<AllowFeaturePush &le; 0.5<br/>gini = 0.2836<br/>samples = 76<br/>value = [13, 63]<br/>class = 0>, fillcolor="#399de5ca"] ;
0 -> 1 [labeldistance=2.5, labelangle=45, headlabel="True"] ;
2 [label=<InstallDays &le; 0.1563<br/>gini = 0.4965<br/>samples = 24<br/>value = [11, 13]<br/>class = 0>, fillcolor="#399de527"] ;
1 -> 2 ;
3 [label=<OSVersion-910 &le; 0.5<br/>gini = 0.4297<br/>samples = 16<br/>value = [11, 5]<br/>class = 0>, fillcolor="#e581398b"] ;
2 -> 3 ;
4 [label=<gini = 0.4898<br/>samples = 7<br/>value = [3, 4]<br/>class = 0>, fillcolor="#399de540"] ;
3 -> 4 ;
5 [label=<gini = 0.1975<br/>samples = 9<br/>value = [8, 1]<br/>class = 0>, fillcolor="#e58139df"] ;
3 -> 5 ;
6 [label=<gini = 0.0<br/>samples = 8<br/>value = [0, 8]<br/>class = 0>, fillcolor="#399de5ff"] ;
2 -> 6 ;
7 [label=<SignIn &le; 0.6457<br/>gini = 0.074<br/>samples = 52<br/>value = [2, 50]<br/>class = 0>, fillcolor="#399de5f5"] ;
1 -> 7 ;
8 [label=<gini = 0.0<br/>samples = 38<br/>value = [0, 38]<br/>class = 0>, fillcolor="#399de5ff"] ;
7 -> 8 ;
9 [label=<InstallDays &le; 0.0563<br/>gini = 0.2449<br/>samples = 14<br/>value = [2, 12]<br/>class = 0>, fillcolor="#399de5d4"] ;
7 -> 9 ;
10 [label=<gini = 0.48<br/>samples = 5<br/>value = [2, 3]<br/>class = 0>, fillcolor="#399de555"] ;
9 -> 10 ;
11 [label=<gini = 0.0<br/>samples = 9<br/>value = [0, 9]<br/>class = 0>, fillcolor="#399de5ff"] ;
9 -> 11 ;
12 [label=<gini = 0.0<br/>samples = 83<br/>value = [83, 0]<br/>class = 0>, fillcolor="#e58139ff"] ;
0 -> 12 [labeldistance=2.5, labelangle=-45, headlabel="False"] ;
}